#ifndef PIC_COM_BASIS_LOOKUP_H
#define PIC_COM_BASIS_LOOKUP_H

#include "ComDef.h"

#define NUM_BASIS 16

static const s32 interp_weights[256] = {\
	 1162, -286,   82,   75,  1024,  -45, -153,  182,  1326, -222, -119,   35,  584,  554,  190, -292,\
	 280,  444,  -60,  370,  1547, -922,   88,  306,  701,  707,  105, -463,  1568, -228, -133, -214,\
	 2186, -831, -660,  279,  355,  845,   87, -245,  1722, -916, -181,  413, -167,  903,  755, -447,\
	 1614, -646,  125,  -72,  1074,  137, -714,  540,  1241, -355,  523, -390,  167,  863,   65,  -78,\
	 588,    3,  563, -116,  810,  859,   96, -745,  1512, -543, -394,  449,  1186, -319, -266,  412,\
	 1310,  157,  -64, -244,  240,  1109,   27, -263,  1436, -864,  105,  241,  1109, -402,  -67,  266,\
	 1539, -179, -209, -128,  874,  507, -177, -181,  782, -129,  647, -276,  901, -198, -261,  585,\
	 874,  480,  -75, -358,  580,  498, -139, -101,  1582, -683,  214,   65,  1059, -296,    0,  394,\
	 909, -128,   83,   56,  1153,  309, -585,  117,  520, -105,  921, -236,  1514,  -76, -420,   63,\
	 1154,    8, -674,  451,  1041,  140,  268, -277,  854,  -27,  -79,  101,  1046, -121,  485, -276,\
	 570, -676,  384,  742,  241, -307,  893,  204,  1623,  474, -742, -340,  1662,  509, -535, -606,\
	 1939,   81, -1158,  152,  1974,  -10, -714, -240,  100,  -65,  679,  318,   83,   -6,  1193, -230,\
	 2011, -128, -995,  319,  1092,  -35, -164,  -76,  560,  210,  386,   39,  434,  -47,  773, -282,\
	 1687,  -91,  629, -1202,  1188,  537, -1451,  757,  945, -559,  1289, -667,  277,  113, -467,  1112,\
	 1034,   36,  -42,   -5,  1053,    2,   -7,  -22,  979,   -3,   34,   14,  1030,  -35,   16,   12,\
	 1034,   36,  -42,   -5,  1053,    2,   -7,  -22,  979,   -3,   34,   14,  1030,  -35,   16,   12};

static const s32 basis_weights[192] = {\
	-1675,  3302,  123, -1748, -1466,  884, -2317,  2912,  2761,  955, -2679, -1032,\
	 952, -1410, -2393,  2855, -2286,  2896, -1526,  913,  2541,  1483, -2126, -1897,\
	-2605,  2780, -1146,  974, -2018,  -79,  3339, -1245, -1312, -2201,  341,  3177,\
	-2449, -434, -353,  3235, -1479,  3519, -1263, -785, -2099,   28,  3297, -1226,\
	-2430,  2798,  1034, -1405,  -57, -1955,  3343, -1333, -2586, -967,  575,  2970,\
	-1363, -2531,  1259,  2633,  3275, -2362, -629, -275, -128, -769,  3255, -2362,\
	 890, -1948, -1881,  2942, -669, -2680,  3004,  349,  3369, -1264, -151, -1952,\
	 2850,  989, -2315, -1523, -388, -133, -2599,  3139, -2078,  3402, -667, -665,\
	 2835, -1847, -2051,  1057, -2105,  -30, -1175,  3311,  324,  3030, -2644, -705,\
	-2554,  1309, -1348,  2593, -760,  3226,  -55, -2406, -2342, -687,  3279, -255,\
	-2037, -2015,  1605,  2448,  162, -754,  3124, -2534,  2899, -2821, -494,  416,\
	 469,  2978, -2660, -784,  3468, -1387, -465, -1615,  581, -1339, -2299,  3060,\
	-2170,  2292, -1907,  1782, -2713,  421,  2964, -673, -718, -2672,  402,  2993,\
	-2058,  2024, -2034,  2075, -2725,  972,  2732, -972,  953,  2748, -991, -2708,\
	-904, -413, -2069,  3393, -1443, -2392,  2810,  1037,  3115, -2579, -642,  125,\
	  -3,  3222, -824, -2391,  3167, -644, -2517,   -5, -1599,  1339, -2360,  2619};

#endif
